sgRNA_ID,Gene_ID,bp_diff,pprox,PAM,gene_direction,gene_cutsite,genome_direction,genomeStart,genomeEnd,target
YCG000005,Cs6g18330,0,0,CGG,forward,410,forward,18478495,18478515,Tgt0167
YCG000005,Cs6g18340,1,0,CGG,forward,393,forward,18483028,18483048,Tgt0169
YCG000006,Cs6g18340,0,0,AGG,reverse,308,forward,18482957,18482977,Tgt0168
YCG000006,Cs6g18330,3,2,AGG,reverse,325,forward,18478424,18478444,Tgt0166
YCG000007,Cs8g10860,0,0,CGG,forward,1617,reverse,10236490,10236510,Tgt0211
YCG000008,Cs6g18350,0,0,AGG,reverse,124,forward,18484689,18484709,Tgt0170
YCG000009,Cs4g06690,0,0,TGG,forward,1594,forward,4158028,4158048,Tgt0095
YCG000009,Cs4g06670,0,0,TGG,forward,1474,forward,4147797,4147817,Tgt0094
YCG000010,Cs4g19980,0,0,TGG,forward,2035,forward,19360084,19360104,Tgt0113
YCG000011,Cs2g20400,0,0,CGG,reverse,1249,forward,17236434,17236454,Tgt0051
YCG000012,Cs8g14690,0,0,AGG,forward,124,forward,17776727,17776747,Tgt0213
YCG000013,Cs1g16000,0,0,GGG,forward,594,reverse,19094470,19094490,Tgt0009
YCG000014,Cs3g26090,0,0,GGG,reverse,588,reverse,27525695,27525715,Tgt0085
YCG000015,Cs3g09120,0,0,GGG,reverse,1792,forward,12929630,12929650,Tgt0068
YCG000016,Cs6g03020,0,0,CGG,reverse,254,forward,3088889,3088909,Tgt0145
YCG000016,Cs2g16040,0,0,CGG,reverse,219,forward,12795511,12795531,Tgt0043
YCG000016,Cs2g16060,0,0,CGG,reverse,206,forward,12809174,12809194,Tgt0044
YCG000017,Cs3g27280,0,0,AGG,reverse,2673,forward,28298610,28298630,Tgt0090
YCG000017,Cs3g27290,1,0,AGG,reverse,1598,forward,28307857,28307877,Tgt0091
YCG000018,Cs3g27290,0,0,AGG,reverse,1598,forward,28307857,28307877,Tgt0091
YCG000018,Cs3g27280,1,0,AGG,reverse,2673,forward,28298610,28298630,Tgt0090
YCG000019,Cs3g19810,0,0,CGG,reverse,518,reverse,22975567,22975587,Tgt0076
YCG000020,Cs5g09470,0,0,TGG,forward,1305,reverse,6444748,6444768,Tgt0121
YCG000021,orange1.1t00402,0,0,AGG,forward,981,forward,5444113,5444133,Tgt0258
YCG000022,Cs5g03170,0,0,AGG,forward,1679,reverse,1593829,1593849,Tgt0116
YCG000022,orange1.1t00402,2,1,AGG,forward,789,forward,5443921,5443941,Tgt0257
YCG000023,Cs3g19460,0,0,TGG,reverse,1331,forward,22717326,22717346,Tgt0075
YCG000024,Cs7g09430,0,0,AGG,forward,280,forward,5992635,5992655,Tgt0177
YCG000029,Cs7g13190,0,0,CGG,forward,3030,reverse,9085691,9085711,Tgt0180
YCG000029,Cs7g13200,1,0,CGG,forward,3030,reverse,9097371,9097391,Tgt0182
YCG000030,Cs7g13200,0,0,AGG,forward,2657,reverse,9097744,9097764,Tgt0183
YCG000030,Cs7g13190,1,0,AGG,forward,2657,reverse,9086064,9086084,Tgt0181
YCG000031,Cs3g16380,0,0,TGG,reverse,779,forward,20219242,20219262,Tgt0071
YCG000032,Cs1g19930,0,0,AGG,reverse,283,reverse,23081317,23081337,Tgt0018
YCG000037,Cs9g10530,0,0,TGG,forward,2397,reverse,7785994,7786014,Tgt0239
YCG000038,Cs3g25010,0,0,AGG,forward,282,forward,26791396,26791416,Tgt0082
YCG000039,Cs9g10540,0,0,TGG,forward,1639,reverse,7803624,7803644,Tgt0240
YCG000039,Cs5g29860,3,2,TGG,forward,238,reverse,31852357,31852377,Tgt0140
YCG000040,Cs5g29860,0,0,AGG,reverse,417,reverse,31852164,31852184,Tgt0139
YCG000045,Cs4g17410,0,0,AGG,forward,923,forward,17130532,17130552,Tgt0111
YCG000045,Cs1g13220,3,1,AGG,forward,1267,reverse,16318924,16318944,Tgt0005
YCG000046,Cs6g13230,0,0,AGG,reverse,321,forward,14741713,14741733,Tgt0160
YCG000047,Cs9g10730,0,0,AGG,forward,76,reverse,8059612,8059632,Tgt0241
YCG000048,Cs1g13220,0,0,GGG,forward,1308,reverse,16318883,16318903,Tgt0004
YCG000049,Cs6g22150,0,0,AGG,forward,1379,forward,20993521,20993541,Tgt0175
YCG000049,Cs6g22140,3,2,AGG,forward,1242,reverse,20983972,20983992,Tgt0173
YCG000049,Cs3g08430,1,1,AGG,forward,1401,reverse,11871527,11871547,Tgt0064
YCG000049,Cs8g01760,1,1,AGG,forward,1211,forward,469855,469875,Tgt0195
YCG000049,Cs5g18060,1,1,AGG,forward,1269,reverse,18186616,18186636,Tgt0132
YCG000049,Cs3g08450,1,1,AGG,forward,1352,reverse,11877846,11877866,Tgt0066
YCG000049,Cs3g08390,1,1,AGG,forward,1204,reverse,11854517,11854537,Tgt0060
YCG000049,Cs3g08400,1,1,AGG,forward,1385,reverse,11864961,11864981,Tgt0062
YCG000049,orange1.1t04352,2,2,AGG,forward,13552,reverse,68137345,68137365,Tgt0278
YCG000050,Cs3g08430,0,0,TGG,forward,1078,reverse,11871850,11871870,Tgt0065
YCG000050,Cs6g22140,3,2,TGG,forward,919,reverse,20984295,20984315,Tgt0174
YCG000050,Cs3g08450,2,0,TGG,forward,1029,reverse,11878169,11878189,Tgt0067
YCG000050,Cs3g08400,1,1,TGG,forward,1062,reverse,11865284,11865304,Tgt0063
YCG000050,Cs3g08390,1,1,TGG,forward,881,reverse,11854840,11854860,Tgt0061
YCG000050,Cs8g01760,1,0,TGG,forward,888,forward,469532,469552,Tgt0194
YCG000050,Cs5g18060,1,0,TGG,forward,946,reverse,18186939,18186959,Tgt0133
YCG000051,Cs1g19850,0,0,TGG,forward,268,reverse,23030379,23030399,Tgt0016
YCG000051,Cs1g19860,1,1,TGG,forward,325,reverse,23036890,23036910,Tgt0017
YCG000052,Cs1g19860,0,0,CGG,forward,309,reverse,23036906,23036926,Tgt0017
YCG000052,Cs1g19850,2,0,CGG,forward,252,reverse,23030395,23030415,Tgt0016
YCG000057,orange1.1t03688,0,0,AGG,reverse,435,reverse,56542183,56542203,Tgt0269
YCG000057,orange1.1t03687,1,1,GGG,reverse,479,reverse,56532954,56532974,Tgt0267
YCG000058,Cs7g22830,0,0,CGG,reverse,581,forward,20884711,20884731,Tgt0186
YCG000059,Cs7g22820,0,0,GGG,forward,203,forward,20850372,20850392,Tgt0185
YCG000060,orange1.1t03687,0,0,AGG,reverse,372,reverse,56533061,56533081,Tgt0268
YCG000061,Cs9g17330,0,0,GGG,forward,232,forward,16655432,16655452,Tgt0246
YCG000061,Cs6g07480,2,0,GGG,forward,208,reverse,9308372,9308392,Tgt0155
YCG000061,Cs2g09970,0,0,GGG,forward,242,reverse,7364372,7364392,Tgt0036
YCG000061,Cs6g16900,3,0,GGG,forward,939,forward,17506930,17506950,Tgt0164
YCG000061,Cs8g19650,2,0,GGG,forward,512,reverse,21726116,21726136,Tgt0225
YCG000062,Cs2g09970,0,0,CGG,forward,3047,reverse,7361567,7361587,Tgt0034
YCG000062,Cs6g16900,2,0,TGG,forward,3176,forward,17509167,17509187,Tgt0165
YCG000062,Cs6g07480,3,1,CGG,forward,1655,reverse,9306925,9306945,Tgt0153
YCG000062,Cs8g19650,3,2,CGG,forward,2391,reverse,21724237,21724257,Tgt0223
YCG000062,Cs9g17330,3,1,TGG,forward,2320,forward,16657520,16657540,Tgt0248
YCG000063,Cs6g07480,0,0,TGG,forward,1338,reverse,9307242,9307262,Tgt0154
YCG000063,Cs3g26180,2,0,TGG,forward,2364,reverse,27558996,27559016,Tgt0086
YCG000063,Cs2g09970,3,1,TGG,forward,2730,reverse,7361884,7361904,Tgt0035
YCG000063,Cs9g17330,3,1,TGG,forward,2003,forward,16657203,16657223,Tgt0247
YCG000063,Cs8g19650,2,0,TGG,forward,2074,reverse,21724554,21724574,Tgt0224
YCG000064,Cs8g19650,0,0,GGG,forward,512,reverse,21726116,21726136,Tgt0225
YCG000064,Cs6g07480,2,0,GGG,forward,208,reverse,9308372,9308392,Tgt0156
YCG000064,Cs9g17330,2,0,GGG,forward,232,forward,16655432,16655452,Tgt0246
YCG000064,Cs2g09970,2,0,GGG,forward,242,reverse,7364372,7364392,Tgt0037
YCG000064,Cs5g03620,3,1,GGG,forward,328,forward,1955647,1955667,Tgt0117
YCG000065,Cs8g03680,0,0,TGG,forward,1527,reverse,1820700,1820720,Tgt0202
YCG000065,Cs5g26760,3,0,TGG,forward,2395,forward,29503385,29503405,Tgt0137
YCG000065,Cs1g21050,2,0,TGG,forward,1815,forward,24027756,24027776,Tgt0022
YCG000065,Cs3g16600,3,0,TGG,forward,1758,reverse,20379961,20379981,Tgt0074
YCG000066,Cs6g21090,0,0,TGG,forward,215,reverse,20321495,20321515,Tgt0171
YCG000066,Cs6g21100,0,0,TGG,forward,1423,reverse,20323403,20323423,Tgt0172
YCG000066,Cs8g03680,2,1,TGG,forward,1839,reverse,1820388,1820408,Tgt0201
YCG000066,Cs1g21050,2,0,TGG,forward,2127,forward,24028068,24028088,Tgt0023
YCG000066,Cs3g16600,3,1,TGG,forward,2070,reverse,20379649,20379669,Tgt0073
YCG000067,Cs5g26760,0,0,AGG,forward,3585,forward,29504575,29504595,Tgt0138
YCG000067,Cs9g03120,2,1,TGG,forward,4119,reverse,1465517,1465537,Tgt0234
YCG000067,Cs1g21050,2,0,TGG,forward,2307,forward,24028248,24028268,Tgt0024
YCG000067,Cs8g03680,2,0,TGG,forward,2019,reverse,1820208,1820228,Tgt0199
YCG000067,Cs3g16600,3,0,TGG,forward,2250,reverse,20379469,20379489,Tgt0072
YCG000068,Cs9g03120,0,0,TGG,forward,4119,reverse,1465517,1465537,Tgt0234
YCG000068,Cs5g26760,2,1,AGG,forward,3585,forward,29504575,29504595,Tgt0138
YCG000068,Cs1g21050,2,1,TGG,forward,2307,forward,24028248,24028268,Tgt0025
YCG000068,Cs8g03680,2,1,TGG,forward,2019,reverse,1820208,1820228,Tgt0200
YCG000073,Cs7g31640,0,0,TGG,forward,546,reverse,31450465,31450485,Tgt0190
YCG000074,Cs5g33540,0,0,TGG,reverse,516,forward,34554479,34554499,Tgt0143
YCG000075,Cs6g16680,0,0,TGG,reverse,661,reverse,17332106,17332126,Tgt0162
YCG000075,Cs3g07150,2,1,TGG,reverse,627,forward,10108799,10108819,Tgt0059
YCG000076,Cs3g07150,0,0,TGG,forward,226,forward,10108384,10108404,Tgt0058
YCG000076,Cs6g16680,3,2,GGG,forward,210,reverse,17332571,17332591,Tgt0163
YCG000085,Cs9g16650,0,0,TGG,forward,1298,forward,16129583,16129603,Tgt0243
YCG000085,orange1.1t03923,0,0,TGG,forward,1318,reverse,60636957,60636977,Tgt0271
YCG000085,Cs9g16640,2,1,TGG,forward,1809,forward,16124104,16124124,Tgt0242
YCG000086,Cs1g16560,0,0,GGG,forward,2501,forward,19889226,19889246,Tgt0010
YCG000087,orange1.1t01563,0,0,TGG,forward,852,reverse,26338471,26338491,Tgt0261
YCG000088,Cs7g22860,0,0,AGG,reverse,334,reverse,20961095,20961115,Tgt0187
YCG000101,Cs3g20810,0,0,TGG,forward,313,reverse,23785574,23785594,Tgt0079
YCG000101,Cs3g20800,1,1,TGG,forward,540,reverse,23778944,23778964,Tgt0078
YCG000101,Cs3g20830,1,0,TGG,forward,860,forward,23802505,23802525,Tgt0080
YCG000102,Cs5g08520,0,0,TGG,reverse,1504,forward,5603847,5603867,Tgt0119
YCG000103,Cs5g16310,0,0,TGG,forward,4906,reverse,15025303,15025323,Tgt0130
YCG000104,Cs5g04330,0,0,GGG,forward,147,forward,2448789,2448809,Tgt0118
YCG000105,Cs2g10900,0,0,CGG,forward,2337,reverse,8189986,8190006,Tgt0039
YCG000105,Cs2g11060,0,0,CGG,forward,3162,forward,8314183,8314203,Tgt0041
YCG000106,orange1.1t01993,0,0,TGG,forward,397,reverse,31577675,31577695,Tgt0263
YCG000107,Cs1g23600,0,0,CGG,forward,604,forward,26126210,26126230,Tgt0028
YCG000108,Cs4g07650,0,0,TGG,reverse,491,reverse,4867329,4867349,Tgt0104
YCG000109,Cs2g10910,0,0,CGG,forward,1015,forward,8199332,8199352,Tgt0040
YCG000110,Cs1g07120,0,0,CGG,forward,419,reverse,7206299,7206319,Tgt0002
YCG000111,Cs2g10380,0,0,AGG,forward,1885,forward,7709609,7709629,Tgt0038
YCG000112,Cs3g21730,0,0,TGG,reverse,331,forward,24556277,24556297,Tgt0081
YCG000117,Cs3g26470,0,0,AGG,reverse,743,forward,27771233,27771253,Tgt0087
YCG000117,Cs3g26480,2,1,AGG,reverse,986,forward,27778850,27778870,Tgt0088
YCG000118,orange1.1t02279,0,0,AGG,forward,570,forward,34358876,34358896,Tgt0264
YCG000119,Cs5g15150,0,0,TGG,reverse,1661,forward,13124784,13124804,Tgt0129
YCG000120,Cs3g26480,0,0,AGG,forward,2203,forward,27780053,27780073,Tgt0089
YCG000125,Cs2g05960,0,0,AGG,forward,866,reverse,3295244,3295264,Tgt0033
YCG000126,Cs1g18220,0,0,TGG,reverse,2121,forward,21238501,21238521,Tgt0012
YCG000126,Cs1g18240,1,1,TGG,reverse,1300,forward,21252895,21252915,Tgt0014
YCG000127,Cs2g30570,0,0,CGG,reverse,722,reverse,29892536,29892556,Tgt0056
YCG000128,Cs1g18240,0,0,TGG,reverse,61,forward,21251656,21251676,Tgt0013
YCG000129,Cs5g23160,0,0,GGG,forward,2008,reverse,25905714,25905734,Tgt0134
YCG000129,Cs6g03280,2,1,GGG,forward,2838,reverse,3547528,3547548,Tgt0146
YCG000130,Cs7g25580,0,0,CGG,forward,300,reverse,26178086,26178106,Tgt0189
YCG000130,orange1.1t04194,0,0,CGG,forward,432,forward,65421377,65421397,Tgt0277
YCG000131,Cs9g18280,0,0,GGG,forward,676,forward,17453858,17453878,Tgt0249
YCG000132,Cs6g03280,0,0,TGG,forward,647,reverse,3549719,3549739,Tgt0147
YCG000145,Cs1g20610,0,0,CGG,reverse,409,reverse,23641650,23641670,Tgt0021
YCG000145,Cs1g20580,3,1,TGG,reverse,753,reverse,23612194,23612214,Tgt0019
YCG000146,Cs8g06630,0,0,AGG,reverse,714,forward,4438376,4438396,Tgt0204
YCG000147,Cs1g20580,0,0,TGG,forward,220,reverse,23612741,23612761,Tgt0020
YCG000148,Cs2g14940,0,0,AGG,forward,931,reverse,11830367,11830387,Tgt0042
YCG000149,Cs3g15690,0,0,AGG,forward,627,reverse,19703453,19703473,Tgt0070
YCG000150,Cs9g02520,0,0,TGG,forward,1593,forward,1026664,1026684,Tgt0233
YCG000151,Cs8g04550,0,0,CGG,forward,475,forward,2434056,2434076,Tgt0203
YCG000152,Cs5g24680,0,0,TGG,reverse,679,forward,27503253,27503273,Tgt0135
YCG000157,Cs5g33180,0,0,GGG,reverse,570,forward,34273689,34273709,Tgt0141
YCG000158,Cs8g01880,0,0,TGG,reverse,1540,reverse,555881,555901,Tgt0197
YCG000159,Cs6g15610,0,0,AGG,forward,606,reverse,16671825,16671845,Tgt0161
YCG000160,Cs5g16770,0,0,TGG,forward,214,reverse,16141280,16141300,Tgt0131
YCG000161,Cs5g03150,0,0,AGG,reverse,2871,reverse,1578223,1578243,Tgt0115
YCG000161,Cs4g08220,2,0,GGG,reverse,2659,forward,5401514,5401534,Tgt0106
YCG000161,Cs9g19220,2,0,AGG,reverse,2470,reverse,18216137,18216157,Tgt0256
YCG000162,Cs9g19220,0,0,TGG,forward,2491,reverse,18216130,18216150,Tgt0256
YCG000162,Cs5g03150,2,0,TGG,forward,2892,reverse,1578216,1578236,Tgt0115
YCG000162,Cs4g08220,3,1,TGG,forward,2680,forward,5401521,5401541,Tgt0107
YCG000163,Cs7g22920,0,0,AGG,reverse,2717,forward,21143383,21143403,Tgt0188
YCG000164,Cs4g08220,0,0,AGG,reverse,1239,forward,5400094,5400114,Tgt0105
YCG000181,Cs3g14190,0,0,GGG,reverse,606,reverse,18609887,18609907,Tgt0069
YCG000182,orange1.1t03813,0,0,AGG,forward,284,forward,58348853,58348873,Tgt0270
YCG000183,Cs6g12390,0,0,AGG,forward,540,forward,14001193,14001213,Tgt0159
YCG000184,Cs1g09140,0,0,TGG,forward,372,forward,10341100,10341120,Tgt0003
YCG000185,Cs4g06850,0,0,TGG,forward,4589,forward,4317433,4317453,Tgt0097
YCG000185,Cs4g06900,2,0,TGG,forward,2681,reverse,4356998,4357018,Tgt0100
YCG000186,Cs5g33470,0,0,TGG,reverse,1511,reverse,34514311,34514331,Tgt0142
YCG000186,Cs9g03980,0,0,AGG,reverse,1148,forward,2103810,2103830,Tgt0236
YCG000187,Cs4g06900,0,0,AGG,reverse,2817,reverse,4356848,4356868,Tgt0099
YCG000187,Cs4g06850,1,0,AGG,reverse,4725,forward,4317583,4317603,Tgt0098
YCG000188,Cs3g20580,0,0,CGG,reverse,673,reverse,23626591,23626611,Tgt0077
YCG000189,Cs6g05830,0,0,GGG,forward,483,reverse,7296088,7296108,Tgt0150
YCG000190,Cs8g18050,0,0,TGG,reverse,108,reverse,20770310,20770330,Tgt0218
YCG000191,Cs8g02870,0,0,CGG,reverse,643,reverse,1240822,1240842,Tgt0198
YCG000192,Cs2g19850,0,0,CGG,reverse,1236,reverse,16626503,16626523,Tgt0050
YCG000193,Cs1g15940,0,0,GGG,forward,680,reverse,19034862,19034882,Tgt0008
YCG000194,Cs8g15750,0,0,CGG,forward,1488,reverse,18888517,18888537,Tgt0216
YCG000194,Cs9g01410,1,0,TGG,forward,726,reverse,243107,243127,Tgt0228
YCG000195,Cs6g01310,0,0,AGG,reverse,960,forward,545491,545511,Tgt0144
YCG000195,Cs9g01410,2,1,TGG,reverse,838,reverse,242981,243001,Tgt0227
YCG000195,Cs8g15750,3,1,GGG,reverse,1600,reverse,18888391,18888411,Tgt0214
YCG000196,Cs9g01410,0,0,TGG,reverse,838,reverse,242981,243001,Tgt0227
YCG000196,Cs6g01310,2,1,AGG,reverse,960,forward,545491,545511,Tgt0144
YCG000196,Cs8g15750,2,0,GGG,reverse,1600,reverse,18888391,18888411,Tgt0215
YCG000197,orange1.1t03997,0,0,AGG,reverse,2082,reverse,62214507,62214527,Tgt0272
YCG000197,orange1.1t03998,0,0,AGG,reverse,1515,reverse,62238784,62238804,Tgt0273
YCG000197,orange1.1t04139,0,0,AGG,reverse,1459,reverse,64162636,64162656,Tgt0276
YCG000197,Cs8g09720,2,1,AGG,reverse,1479,reverse,8179934,8179954,Tgt0208
YCG000197,Cs8g09390,2,2,AGG,reverse,1438,reverse,7556354,7556374,Tgt0206
YCG000197,Cs8g09780,0,0,CGG,reverse,1446,reverse,8334576,8334596,Tgt0210
YCG000197,Cs8g12530,1,1,AGG,reverse,1427,reverse,14468537,14468557,Tgt0212
YCG000197,Cs8g09480,1,1,AGG,reverse,1719,forward,7832510,7832530,Tgt0207
YCG000197,orange1.1t04994,1,1,AGG,reverse,1425,forward,80458491,80458511,Tgt0282
YCG000197,orange1.1t04133,3,2,AGG,reverse,596,forward,64102396,64102416,Tgt0275
YCG000197,orange1.1t04132,3,2,AGG,reverse,1534,forward,64100017,64100037,Tgt0274
YCG000197,orange1.1t04372,1,0,AGG,reverse,1402,reverse,68636504,68636524,Tgt0279
YCG000197,orange1.1t04771,1,0,AGG,reverse,1348,forward,75939626,75939646,Tgt0281
YCG000197,Cs8g09730,2,1,AGG,reverse,1427,reverse,8204525,8204545,Tgt0209
YCG000197,Cs5g09870,3,1,AGG,reverse,1521,reverse,6794908,6794928,Tgt0123
YCG000197,Cs5g09860,3,1,AGG,reverse,1433,reverse,6784060,6784080,Tgt0122
YCG000197,Cs5g09880,3,2,AGG,reverse,1893,reverse,6797689,6797709,Tgt0124
YCG000197,Cs4g14130,1,0,AGG,reverse,2318,forward,11629457,11629477,Tgt0109
YCG000197,Cs4g14140,1,0,AGG,reverse,1439,forward,11654162,11654182,Tgt0110
YCG000198,Cs6g07320,0,0,GGG,reverse,351,forward,9166950,9166970,Tgt0152
YCG000199,Cs2g17080,0,0,TGG,reverse,901,reverse,13842023,13842043,Tgt0045
YCG000200,Cs8g18360,0,0,CGG,reverse,584,reverse,20994345,20994365,Tgt0219
YCG000201,Cs4g07340,0,0,TGG,forward,755,reverse,4657617,4657637,Tgt0102
YCG000201,Cs4g07350,0,0,TGG,forward,565,reverse,4659374,4659394,Tgt0103
YCG000202,Cs1g21130,0,0,AGG,forward,272,forward,24073291,24073311,Tgt0026
YCG000203,Cs4g06710,0,0,AGG,forward,2440,forward,4175550,4175570,Tgt0096
YCG000204,Cs5g25590,0,0,CGG,forward,235,forward,28325326,28325346,Tgt0136
YCG000205,Cs3g25410,0,0,TGG,forward,3921,forward,27052006,27052026,Tgt0083
YCG000206,Cs2g28080,0,0,GGG,reverse,109,reverse,27785998,27786018,Tgt0055
YCG000207,Cs8g08270,0,0,TGG,forward,3667,forward,6459892,6459912,Tgt0205
YCG000207,Cs1g24730,3,1,TGG,forward,4933,forward,26992221,26992241,Tgt0030
YCG000208,Cs1g24730,0,0,AGG,reverse,1180,forward,26988482,26988502,Tgt0029
YCG000209,Cs5g12230,0,0,TGG,forward,185,reverse,9208570,9208590,Tgt0128
YCG000209,Cs5g12220,3,1,TGG,forward,283,reverse,9203361,9203381,Tgt0126
YCG000210,Cs5g12220,0,0,TGG,forward,328,reverse,9203316,9203336,Tgt0125
YCG000210,Cs5g12230,3,2,TGG,forward,230,reverse,9208525,9208545,Tgt0127
YCG000211,Cs2g04590,0,0,CGG,reverse,1429,forward,2325950,2325970,Tgt0031
YCG000212,Cs6g04310,0,0,AGG,forward,710,forward,5027736,5027756,Tgt0149
YCG000213,Cs9g01450,0,0,TGG,forward,1929,reverse,268535,268555,Tgt0231
YCG000213,Cs9g01440,0,0,TGG,forward,2031,reverse,261179,261199,Tgt0229
YCG000214,Cs9g01440,0,0,CGG,reverse,1084,reverse,262112,262132,Tgt0230
YCG000214,Cs9g01450,1,0,CGG,reverse,986,reverse,269464,269484,Tgt0232
YCG000215,orange1.1t03414,0,0,TGG,forward,254,forward,52573640,52573660,Tgt0266
YCG000216,Cs2g26900,0,0,TGG,forward,894,reverse,26751058,26751078,Tgt0054
YCG000217,Cs3g01140,0,0,TGG,forward,90,forward,184501,184521,Tgt0057
YCG000218,orange1.1t02719,0,0,TGG,forward,1248,forward,41824767,41824787,Tgt0265
YCG000219,Cs7g05620,0,0,TGG,forward,329,reverse,3042421,3042441,Tgt0176
YCG000220,orange1.1t05126,0,0,AGG,forward,364,forward,83082755,83082775,Tgt0283
YCG000229,Cs9g18820,0,0,TGG,forward,1220,reverse,17946364,17946384,Tgt0252
YCG000229,Cs9g18830,0,0,TGG,forward,1017,reverse,17952562,17952582,Tgt0254
YCG000229,Cs9g18780,1,1,TGG,forward,1008,reverse,17907566,17907586,Tgt0250
YCG000230,Cs9g18780,0,0,AGG,forward,851,reverse,17907723,17907743,Tgt0251
YCG000230,Cs9g18830,1,1,AGG,forward,860,reverse,17952719,17952739,Tgt0255
YCG000230,Cs9g18820,1,1,AGG,forward,1063,reverse,17946521,17946541,Tgt0253
YCG000231,Cs4g11690,0,0,TGG,forward,931,forward,8516630,8516650,Tgt0108
YCG000232,Cs2g22280,0,0,TGG,forward,281,reverse,19716941,19716961,Tgt0053
YCG000233,Cs3g25510,0,0,CGG,reverse,690,reverse,27098844,27098864,Tgt0084
YCG000234,Cs9g03250,0,0,AGG,reverse,411,forward,1583312,1583332,Tgt0235
YCG000235,Cs1g01220,0,0,TGG,forward,977,reverse,307159,307179,Tgt0001
YCG000236,Cs4g18520,0,0,TGG,reverse,996,forward,18088722,18088742,Tgt0112
YCG000237,Cs2g05560,0,0,AGG,reverse,351,forward,3041586,3041606,Tgt0032
YCG000238,Cs8g01860,0,0,TGG,forward,475,reverse,534845,534865,Tgt0196
YCG000239,Cs1g23090,0,0,TGG,forward,681,forward,25717767,25717787,Tgt0027
YCG000240,Cs9g04770,0,0,TGG,forward,308,forward,2723731,2723751,Tgt0237
YCG000241,Cs9g17250,0,0,AGG,reverse,120,forward,16602642,16602662,Tgt0245
YCG000242,orange1.1t01707,0,0,AGG,reverse,277,forward,27624468,27624488,Tgt0262
YCG000243,Cs8g20420,0,0,CGG,forward,1437,forward,22224562,22224582,Tgt0226
YCG000244,Cs4g07040,0,0,GGG,forward,429,forward,4483488,4483508,Tgt0101
YCG000245,Cs1g15320,0,0,TGG,forward,890,reverse,18553214,18553234,Tgt0006
YCG000246,Cs5g09230,0,0,TGG,forward,2909,forward,6258261,6258281,Tgt0120
YCG000247,Cs8g17810,0,0,CGG,forward,1001,reverse,20590609,20590629,Tgt0217
YCG000248,Cs2g21820,0,0,GGG,reverse,1260,forward,18912765,18912785,Tgt0052
YCG000249,orange1.1t04489,0,0,TGG,forward,729,reverse,70684921,70684941,Tgt0280
YCG000249,Cs4g03330,2,1,TGG,forward,786,reverse,1714059,1714079,Tgt0092
YCG000250,Cs6g10600,0,0,AGG,forward,674,reverse,12097210,12097230,Tgt0158
YCG000251,Cs1g19390,0,0,TGG,forward,1447,forward,22688848,22688868,Tgt0015
YCG000252,Cs4g03330,0,0,AGG,forward,354,reverse,1714491,1714511,Tgt0093
YCG000253,Cs7g10570,0,0,CGG,forward,772,reverse,6837366,6837386,Tgt0179
YCG000253,Cs7g09640,1,1,TGG,forward,966,forward,6151046,6151066,Tgt0178
YCG000254,Cs9g06110,0,0,GGG,forward,1208,forward,3697457,3697477,Tgt0238
YCG000255,Cs1g15440,0,0,AGG,reverse,157,forward,18627770,18627790,Tgt0007
YCG000256,Cs7g20420,0,0,CGG,reverse,185,forward,17207485,17207505,Tgt0184
YCG000257,orange1.1t00472,0,0,AGG,reverse,793,reverse,5891376,5891396,Tgt0259
YCG000258,Cs6g09420,0,0,TGG,reverse,1777,reverse,11180524,11180544,Tgt0157
YCG000259,Cs5g02440,0,0,TGG,forward,563,forward,1081210,1081230,Tgt0114
YCG000260,Cs1g17220,0,0,TGG,forward,487,reverse,20464428,20464448,Tgt0011
YCG000261,orange1.1t00580,0,0,CGG,reverse,5189,forward,6809405,6809425,Tgt0260
YCG000262,Cs2g17800,0,0,GGG,reverse,4131,reverse,14526719,14526739,Tgt0046
YCG000262,Cs2g17810,1,0,GGG,reverse,966,reverse,14552831,14552851,Tgt0048
YCG000263,Cs2g17810,0,0,TGG,forward,629,reverse,14553182,14553202,Tgt0049
YCG000263,Cs2g17800,1,0,TGG,forward,3794,reverse,14527070,14527090,Tgt0047
YCG000264,Cs6g04060,0,0,AGG,forward,4052,forward,4651665,4651685,Tgt0148
YCG000265,Cs6g06530,0,0,GGG,reverse,648,reverse,8474982,8475002,Tgt0151
YCG000265,Cs7g32410,2,1,GGG,reverse,674,forward,32050606,32050626,Tgt0191
YCG000265,Cs8g18640,3,1,GGG,reverse,544,reverse,21179754,21179774,Tgt0222
YCG000266,Cs9g16810,0,0,GGG,forward,465,reverse,16231186,16231206,Tgt0244
YCG000267,Cs8g18640,0,0,TGG,forward,2017,reverse,21178295,21178315,Tgt0220
YCG000267,Cs7g32410,3,2,TGG,forward,1011,forward,32050929,32050949,Tgt0193
YCG000268,Cs7g32410,0,0,AGG,reverse,704,forward,32050636,32050656,Tgt0192
YCG000268,Cs8g18640,3,1,AGG,reverse,574,reverse,21179724,21179744,Tgt0221